GenomeStart 95040
Neuron 1 1 0.00000000 1 0.00000000 0.00000000 0.00000000 0.00000000
Neuron 2 1 0.00000000 1 0.00000000 0.00000000 0.00000000 0.00000000
Neuron 3 1 0.00000000 1 0.00000000 0.00000000 0.00000000 0.00000000
Neuron 4 1 0.00000000 1 0.00000000 0.00000000 0.00000000 0.00000000
Neuron 5 1 0.00000000 1 0.00000000 0.00000000 0.00000000 0.00000000
Neuron 6 1 0.00000000 1 0.00000000 0.00000000 0.00000000 0.00000000
Neuron 7 1 0.00000000 1 0.00000000 0.00000000 0.00000000 0.00000000
Neuron 8 1 0.00000000 1 0.00000000 0.00000000 0.00000000 0.00000000
Neuron 9 1 0.00000000 1 0.00000000 0.00000000 0.00000000 0.00000000
Neuron 10 1 0.00000000 1 0.00000000 0.00000000 0.00000000 0.00000000
Neuron 11 1 0.00000000 1 0.00000000 0.00000000 0.00000000 0.00000000
Neuron 12 1 0.00000000 1 0.00000000 0.00000000 0.00000000 0.00000000
Neuron 13 1 0.00000000 1 0.00000000 0.00000000 0.00000000 0.00000000
Neuron 14 1 0.00000000 1 0.00000000 0.00000000 0.00000000 0.00000000
Neuron 15 1 0.00000000 1 0.00000000 0.00000000 0.00000000 0.00000000
Neuron 16 1 0.00000000 1 0.00000000 0.00000000 0.00000000 0.00000000
Neuron 17 1 0.00000000 1 0.00000000 0.00000000 0.00000000 0.00000000
Neuron 18 1 0.00000000 1 0.00000000 0.00000000 0.00000000 0.00000000
Neuron 19 1 0.00000000 1 0.00000000 0.00000000 0.00000000 0.00000000
Neuron 20 1 0.00000000 1 0.00000000 0.00000000 0.00000000 0.00000000
Neuron 21 1 0.00000000 1 0.00000000 0.00000000 0.00000000 0.00000000
Neuron 22 1 0.00000000 1 0.00000000 0.00000000 0.00000000 0.00000000
Neuron 23 1 0.00000000 1 0.00000000 0.00000000 0.00000000 0.00000000
Neuron 24 1 0.00000000 1 0.00000000 0.00000000 0.00000000 0.00000000
Neuron 25 4 1.00000000 2 1.00000000 0.00000000 0.00000000 0.00000000
Neuron 26 3 0.50000000 1 1.00000000 0.00000000 0.00000000 0.00000000
Neuron 30 3 0.50000000 1 1.00000000 0.00000000 0.00000000 0.00000000
Neuron 32 3 0.50000000 1 1.00000000 0.00000000 0.00000000 0.00000000
Neuron 33 3 0.50000000 1 1.00000000 0.00000000 0.00000000 0.00000000
Neuron 34 3 0.50000000 1 1.00000000 0.00000000 0.00000000 0.00000000
Neuron 35 3 0.50000000 1 1.00000000 0.00000000 0.00000000 0.00000000
Neuron 36 3 0.50000000 1 1.00000000 0.00000000 0.00000000 0.00000000
Neuron 38 3 0.50000000 1 1.00000000 0.00000000 0.00000000 0.00000000
Neuron 40 3 0.50000000 1 1.00000000 0.00000000 0.00000000 0.00000000
Neuron 41 3 0.50000000 1 1.00000000 0.00000000 0.00000000 0.00000000
Neuron 42 3 0.25000000 1 1.00000000 0.00000000 0.00000000 0.00000000
Neuron 44 3 0.50000000 1 1.00000000 0.00000000 0.00000000 0.00000000
Neuron 45 3 0.25000000 1 1.00000000 0.00000000 0.00000000 0.00000000
Neuron 47 3 0.75000000 1 1.00000000 0.00000000 0.00000000 0.00000000
Neuron 48 3 0.75000000 1 1.00000000 0.00000000 0.00000000 0.00000000
Neuron 62 3 0.50000000 1 1.00000000 0.00000000 0.00000000 0.00000000
Neuron 63 3 0.50000000 1 1.00000000 0.00000000 0.00000000 0.00000000
Neuron 70 3 0.75000000 1 1.00000000 0.00000000 0.00000000 0.00000000
Neuron 71 3 0.50000000 1 1.00000000 0.00000000 0.00000000 0.00000000
Neuron 72 3 0.25000000 1 1.00000000 0.00000000 0.00000000 0.00000000
Link 1 25 1 0 -2.16746024
Link 2 25 2 0 -0.17717039
Link 3 25 3 0 -3.98940264
Link 5 25 5 0 1.59807257
Link 6 25 6 0 -0.90378063
Link 10 25 10 0 -0.71669442
Link 11 25 11 0 1.23560700
Link 12 25 12 0 1.25743799
Link 15 25 15 0 -3.09381355
Link 16 25 16 0 1.51487117
Link 19 25 19 0 6.08200104
Link 20 25 20 0 2.26902486
Link 22 25 22 0 -2.25822099
Link 23 25 23 0 -1.32112373
Link 14 26 26 0 0.65765895
Link 26 25 27 0 -0.74340904
Link 1 26 34 0 2.16055090
Link 20 26 35 0 -2.60534633
Link 30 25 45 0 -2.67065921
Link 13 32 50 0 0.26614909
Link 32 25 51 0 -4.05671100
Link 2 33 53 0 2.85566988
Link 33 25 54 0 -0.19946167
Link 2 30 60 0 0.27968364
Link 4 34 62 0 2.53868434
Link 34 25 63 0 -2.72531609
Link 17 35 65 0 -1.52335145
Link 35 25 66 0 -1.94548896
Link 7 36 71 0 1.49961454
Link 36 25 72 0 0.24460068
Link 15 35 79 0 0.82694884
Link 21 38 82 0 3.81464460
Link 18 40 97 0 2.04316016
Link 40 25 98 0 5.63692471
Link 8 41 105 0 -4.68063258
Link 14 42 116 0 0.60670809
Link 42 26 117 0 -0.84591703
Link 26 44 132 1 1.42820866
Link 44 26 133 1 -1.35622260
Link 16 34 135 0 -0.40440247
Link 41 34 136 0 0.25916527
Link 20 41 138 0 -0.41366187
Link 24 45 143 0 1.50613277
Link 45 30 144 0 -1.13443593
Link 25 41 146 1 -1.19393145
Link 14 36 160 0 -2.01833668
Link 41 47 162 0 -0.99649076
Link 47 25 163 0 3.18834619
Link 38 48 168 0 1.00000000
Link 48 25 169 0 1.29737131
Link 32 41 218 0 1.39386650
Link 15 62 245 0 4.35835493
Link 62 25 246 0 0.69809655
Link 44 63 248 1 1.89487680
Link 63 26 249 1 0.63733349
Link 47 33 294 1 1.16725867
Link 5 62 295 0 -2.71095843
Link 25 70 310 1 -1.44737374
Link 70 41 311 1 -0.20371719
Link 9 71 316 0 3.06050135
Link 71 25 317 0 -0.15728524
Link 2 72 320 0 1.11365047
Link 72 34 321 0 -0.04355243
Link 18 44 353 0 -0.23419632
Link 63 45 359 1 -0.60198885
GenomeEnd

