GenomeStart 62493
Neuron 1 1 0.00000000 1 0.00000000 0.00000000 0.00000000 0.00000000
Neuron 2 1 0.00000000 1 0.00000000 0.00000000 0.00000000 0.00000000
Neuron 3 1 0.00000000 1 0.00000000 0.00000000 0.00000000 0.00000000
Neuron 4 1 0.00000000 1 0.00000000 0.00000000 0.00000000 0.00000000
Neuron 5 1 0.00000000 1 0.00000000 0.00000000 0.00000000 0.00000000
Neuron 6 1 0.00000000 1 0.00000000 0.00000000 0.00000000 0.00000000
Neuron 7 1 0.00000000 1 0.00000000 0.00000000 0.00000000 0.00000000
Neuron 8 1 0.00000000 1 0.00000000 0.00000000 0.00000000 0.00000000
Neuron 9 1 0.00000000 1 0.00000000 0.00000000 0.00000000 0.00000000
Neuron 10 1 0.00000000 1 0.00000000 0.00000000 0.00000000 0.00000000
Neuron 11 1 0.00000000 1 0.00000000 0.00000000 0.00000000 0.00000000
Neuron 12 1 0.00000000 1 0.00000000 0.00000000 0.00000000 0.00000000
Neuron 13 1 0.00000000 1 0.00000000 0.00000000 0.00000000 0.00000000
Neuron 14 1 0.00000000 1 0.00000000 0.00000000 0.00000000 0.00000000
Neuron 15 1 0.00000000 1 0.00000000 0.00000000 0.00000000 0.00000000
Neuron 16 1 0.00000000 1 0.00000000 0.00000000 0.00000000 0.00000000
Neuron 17 1 0.00000000 1 0.00000000 0.00000000 0.00000000 0.00000000
Neuron 18 1 0.00000000 1 0.00000000 0.00000000 0.00000000 0.00000000
Neuron 19 1 0.00000000 1 0.00000000 0.00000000 0.00000000 0.00000000
Neuron 20 1 0.00000000 1 0.00000000 0.00000000 0.00000000 0.00000000
Neuron 21 1 0.00000000 1 0.00000000 0.00000000 0.00000000 0.00000000
Neuron 22 1 0.00000000 1 0.00000000 0.00000000 0.00000000 0.00000000
Neuron 23 1 0.00000000 1 0.00000000 0.00000000 0.00000000 0.00000000
Neuron 24 1 0.00000000 1 0.00000000 0.00000000 0.00000000 0.00000000
Neuron 25 1 0.00000000 1 0.00000000 0.00000000 0.00000000 0.00000000
Neuron 26 4 1.00000000 2 1.00000000 0.00000000 0.00000000 0.00000000
Neuron 29 3 0.50000000 1 1.00000000 0.00000000 0.00000000 0.00000000
Neuron 30 3 0.50000000 1 1.00000000 0.00000000 0.00000000 0.00000000
Neuron 33 3 0.50000000 1 1.00000000 0.00000000 0.00000000 0.00000000
Neuron 45 3 0.25000000 1 1.00000000 0.00000000 0.00000000 0.00000000
Neuron 46 3 0.75000000 1 1.00000000 0.00000000 0.00000000 0.00000000
Neuron 58 3 0.25000000 1 1.00000000 0.00000000 0.00000000 0.00000000
Link 1 26 1 0 -0.51080914
Link 2 26 2 0 1.28284879
Link 3 26 3 0 1.88069721
Link 5 26 5 0 2.22940340
Link 6 26 6 0 -1.52150471
Link 7 26 7 0 -1.11651291
Link 8 26 8 0 0.35332201
Link 10 26 10 0 0.66188210
Link 11 26 11 0 -1.49950511
Link 12 26 12 0 1.29015463
Link 13 26 13 0 0.66245065
Link 14 26 14 0 -0.43676666
Link 15 26 15 0 -0.83627227
Link 16 26 16 0 0.85170314
Link 17 26 17 0 3.21602355
Link 18 26 18 0 0.70861613
Link 19 26 19 0 3.23126755
Link 20 26 20 0 -0.42554833
Link 22 26 22 0 -2.67186247
Link 23 26 23 0 0.31000912
Link 24 26 24 0 -1.50529330
Link 25 26 25 0 0.68915939
Link 21 29 38 0 0.66541935
Link 29 26 39 0 -0.57507693
Link 30 29 43 0 1.65330706
Link 9 33 54 0 0.15769281
Link 33 26 55 0 1.37311883
Link 33 30 117 0 0.33052219
Link 4 45 120 0 1.96067555
Link 45 30 121 0 0.46506046
Link 30 46 128 0 0.39928867
Link 46 26 129 0 -2.87650513
Link 20 30 155 0 0.13063105
Link 19 33 196 0 0.75645542
Link 13 58 217 0 0.79838927
Link 58 30 218 0 0.13109192
Link 17 58 220 0 -0.55907004
GenomeEnd

